digraph Tree {
node [shape=box] ;
0 [label="heig_beta <= 0.028\ngini = 0.749\nsamples = 1058\nvalue = [290, 266, 260, 242]\nclass = normal"] ;
1 [label="heig_beta <= -0.458\ngini = 0.741\nsamples = 837\nvalue = [142, 244, 226, 225]\nclass = happy"] ;
0 -> 1 [labeldistance=2.5, labelangle=45, headlabel="True"] ;
2 [label="low_beta <= -0.584\ngini = 0.676\nsamples = 234\nvalue = [21, 64, 42, 107]\nclass = touch"] ;
1 -> 2 ;
3 [label="gini = 0.641\nsamples = 173\nvalue = [17, 38, 27, 91]\nclass = touch"] ;
2 -> 3 ;
4 [label="gini = 0.685\nsamples = 61\nvalue = [4, 26, 15, 16]\nclass = happy"] ;
2 -> 4 ;
5 [label="theta <= 0.143\ngini = 0.739\nsamples = 603\nvalue = [121, 180, 184, 118]\nclass = scare"] ;
1 -> 5 ;
6 [label="gini = 0.722\nsamples = 352\nvalue = [89, 112, 111, 40]\nclass = happy"] ;
5 -> 6 ;
7 [label="gini = 0.729\nsamples = 251\nvalue = [32, 68, 73, 78]\nclass = touch"] ;
5 -> 7 ;
8 [label="heig_beta <= 0.332\ngini = 0.512\nsamples = 221\nvalue = [148, 22, 34, 17]\nclass = normal"] ;
0 -> 8 [labeldistance=2.5, labelangle=-45, headlabel="False"] ;
9 [label="low_beta <= 0.226\ngini = 0.644\nsamples = 103\nvalue = [54, 16, 22, 11]\nclass = normal"] ;
8 -> 9 ;
10 [label="gini = 0.424\nsamples = 43\nvalue = [32, 3, 4, 4]\nclass = normal"] ;
9 -> 10 ;
11 [label="gini = 0.715\nsamples = 60\nvalue = [22, 13, 18, 7]\nclass = normal"] ;
9 -> 11 ;
12 [label="theta <= 3.098\ngini = 0.35\nsamples = 118\nvalue = [94, 6, 12, 6]\nclass = normal"] ;
8 -> 12 ;
13 [label="gini = 0.255\nsamples = 106\nvalue = [91, 3, 8, 4]\nclass = normal"] ;
12 -> 13 ;
14 [label="gini = 0.736\nsamples = 12\nvalue = [3, 3, 4, 2]\nclass = scare"] ;
12 -> 14 ;
}